<?xml version="1.0"?>
<opencv_storage>
<cascade>
  <stageType>BOOST</stageType>
  <featureType>HAAR</featureType>
  <height>24</height>
  <width>24</width>
  <stageParams>
    <boostType>GAB</boostType>
    <minHitRate>9.9500000476837158e-01</minHitRate>
    <maxFalseAlarm>5.0000000000000000e-01</maxFalseAlarm>
    <weightTrimRate>9.4999998807907104e-01</weightTrimRate>
    <maxDepth>1</maxDepth>
    <maxWeakCount>100</maxWeakCount></stageParams>
  <featureParams>
    <maxCatCount>0</maxCatCount>
    <featSize>1</featSize>
    <mode>BASIC</mode></featureParams>
  <stageNum>18</stageNum>
  <stages>
    <!-- stage 0 -->
    <_>
      <maxWeakCount>4</maxWeakCount>
      <stageThreshold>-1.7353787422180176e+00</stageThreshold>
      <weakClassifiers>
        <_>
          <internalNodes>
            0 -1 10 -4.9745014309883118e-01</internalNodes>
          <leafValues>
            9.1891890764236450e-01 -9.4140625000000000e-01</leafValues></_>
        <_>
          <internalNodes>
            0 -1 13 -2.3206025362014771e-01</internalNodes>
          <leafValues>
            4.8959594964981079e-01 -9.0582686662673950e-01</leafValues></_>
        <_>
          <internalNodes>
            0 -1 40 -3.0117478221654892e-02</internalNodes>
          <leafValues>
            6.6672480106353760e-01 -6.5669292211532593e-01</leafValues></_>
        <_>
          <internalNodes>
            0 -1 105 5.5775292217731476e-02</internalNodes>
          <leafValues>
            -5.5487036705017090e-01 8.0674761533737183e-01</leafValues></_></weakClassifiers></_>
    <!-- stage 1 -->
    <_>
      <maxWeakCount>3</maxWeakCount>
      <stageThreshold>-1.4154551029205322e+00</stageThreshold>
      <weakClassifiers>
        <_>
          <internalNodes>
            0 -1 65 6.6138610243797302e-02</internalNodes>
          <leafValues>
            -9.2727273702621460e-01 4.9450549483299255e-01</leafValues></_>
        <_>
          <internalNodes>
            0 -1 76 -3.7038229405879974e-02</internalNodes>
          <leafValues>
            5.0791215896606445e-01 -8.4028053283691406e-01</leafValues></_>
        <_>
          <internalNodes>
            0 -1 35 3.2167717814445496e-02</internalNodes>
          <leafValues>
            -8.8648736476898193e-01 3.5209816694259644e-01</leafValues></_></weakClassifiers></_>
    <!-- stage 2 -->
    <_>
      <maxWeakCount>5</maxWeakCount>
      <stageThreshold>-1.8332917690277100e+00</stageThreshold>
      <weakClassifiers>
        <_>
          <internalNodes>
            0 -1 6 -6.3167780637741089e-01</internalNodes>
          <leafValues>
            5.3459119796752930e-01 -9.0128332376480103e-01</leafValues></_>
        <_>
          <internalNodes>
            0 -1 56 7.7637612819671631e-02</internalNodes>
          <leafValues>
            -7.3284482955932617e-01 4.3209311366081238e-01</leafValues></_>
        <_>
          <internalNodes>
            0 -1 59 -8.1445947289466858e-02</internalNodes>
          <leafValues>
            3.1907704472541809e-01 -7.0497500896453857e-01</leafValues></_>
        <_>
          <internalNodes>
            0 -1 119 -3.0433428473770618e-03</internalNodes>
          <leafValues>
            -8.5348063707351685e-01 2.8005969524383545e-01</leafValues></_>
        <_>
          <internalNodes>
            0 -1 22 -2.3027106653898954e-03</internalNodes>
          <leafValues>
            -9.5049995183944702e-01 2.2575163841247559e-01</leafValues></_></weakClassifiers></_>
    <!-- stage 3 -->
    <_>
      <maxWeakCount>6</maxWeakCount>
      <stageThreshold>-1.9178041219711304e+00</stageThreshold>
      <weakClassifiers>
        <_>
          <internalNodes>
            0 -1 53 -3.1859514117240906e-01</internalNodes>
          <leafValues>
            8.9361704885959625e-02 -9.0608322620391846e-01</leafValues></_>
        <_>
          <internalNodes>
            0 -1 45 -3.6022907495498657e-01</internalNodes>
          <leafValues>
            3.8748332858085632e-01 -7.5861549377441406e-01</leafValues></_>
        <_>
          <internalNodes>
            0 -1 12 -1.0079995542764664e-01</internalNodes>
          <leafValues>
            4.2654159665107727e-01 -5.6000185012817383e-01</leafValues></_>
        <_>
          <internalNodes>
            0 -1 66 3.5043228417634964e-02</internalNodes>
          <leafValues>
            -4.4931739568710327e-01 5.9298884868621826e-01</leafValues></_>
        <_>
          <internalNodes>
            0 -1 80 -2.5571364909410477e-02</internalNodes>
          <leafValues>
            4.3831616640090942e-01 -6.2127923965454102e-01</leafValues></_>
        <_>
          <internalNodes>
            0 -1 49 -9.9722202867269516e-03</internalNodes>
          <leafValues>
            3.9800059795379639e-01 -6.5135663747787476e-01</leafValues></_></weakClassifiers></_>
    <!-- stage 4 -->
    <_>
      <maxWeakCount>7</maxWeakCount>
      <stageThreshold>-2.1893622875213623e+00</stageThreshold>
      <weakClassifiers>
        <_>
          <internalNodes>
            0 -1 9 -7.1922707557678223e-01</internalNodes>
          <leafValues>
            3.5042735934257507e-01 -8.2369667291641235e-01</leafValues></_>
        <_>
          <internalNodes>
            0 -1 64 7.2866261005401611e-02</internalNodes>
          <leafValues>
            -7.7455234527587891e-01 3.2397192716598511e-01</leafValues></_>
        <_>
          <internalNodes>
            0 -1 48 -1.0609203577041626e-01</internalNodes>
          <leafValues>
            5.7194042205810547e-01 -5.3855693340301514e-01</leafValues></_>
        <_>
          <internalNodes>
            0 -1 25 -4.1707008494995534e-04</internalNodes>
          <leafValues>
            -7.8816467523574829e-01 3.0936893820762634e-01</leafValues></_>
        <_>
          <internalNodes>
            0 -1 111 -7.7074154978618026e-04</internalNodes>
          <leafValues>
            -7.5885003805160522e-01 2.9412710666656494e-01</leafValues></_>
        <_>
          <internalNodes>
            0 -1 116 3.0818840605206788e-04</internalNodes>
          <leafValues>
            2.0366440713405609e-01 -8.9071953296661377e-01</leafValues></_>
        <_>
          <internalNodes>
            0 -1 112 1.7053132178261876e-03</internalNodes>
          <leafValues>
            1.9326049089431763e-01 -8.8199687004089355e-01</leafValues></_></weakClassifiers></_>
    <!-- stage 5 -->
    <_>
      <maxWeakCount>5</maxWeakCount>
      <stageThreshold>-1.7187098264694214e+00</stageThreshold>
      <weakClassifiers>
        <_>
          <internalNodes>
            0 -1 95 1.6001786291599274e-01</internalNodes>
          <leafValues>
            -9.2676764726638794e-01 -2.4736842513084412e-01</leafValues></_>
        <_>
          <internalNodes>
            0 -1 60 -1.2327395379543304e-01</internalNodes>
          <leafValues>
            1.0194927453994751e-01 -7.6334089040756226e-01</leafValues></_>
        <_>
          <internalNodes>
            0 -1 107 -4.3986449600197375e-04</internalNodes>
          <leafValues>
            -8.3782625198364258e-01 2.0521950721740723e-01</leafValues></_>
        <_>
          <internalNodes>
            0 -1 19 -4.5834474265575409e-02</internalNodes>
          <leafValues>
            4.3785816431045532e-01 -4.6901428699493408e-01</leafValues></_>
        <_>
          <internalNodes>
            0 -1 29 -5.9858139138668776e-04</internalNodes>
          <leafValues>
            -9.5884442329406738e-01 2.3519356548786163e-01</leafValues></_></weakClassifiers></_>
    <!-- stage 6 -->
    <_>
      <maxWeakCount>6</maxWeakCount>
      <stageThreshold>-1.5450087785720825e+00</stageThreshold>
      <weakClassifiers>
        <_>
          <internalNodes>
            0 -1 7 -6.2018370628356934e-01</internalNodes>
          <leafValues>
            6.7226894199848175e-02 -9.0364027023315430e-01</leafValues></_>
        <_>
          <internalNodes>
            0 -1 69 -7.5284555554389954e-02</internalNodes>
          <leafValues>
            5.7387560606002808e-01 -5.7230031490325928e-01</leafValues></_>
        <_>
          <internalNodes>
            0 -1 30 1.1018512304872274e-03</internalNodes>
          <leafValues>
            2.8039759397506714e-01 -7.3102641105651855e-01</leafValues></_>
        <_>
          <internalNodes>
            0 -1 46 -6.9358035922050476e-02</internalNodes>
          <leafValues>
            7.8671246767044067e-01 -3.1967094540596008e-01</leafValues></_>
        <_>
          <internalNodes>
            0 -1 103 3.7168323993682861e-02</internalNodes>
          <leafValues>
            -3.1412318348884583e-01 7.2193789482116699e-01</leafValues></_>
        <_>
          <internalNodes>
            0 -1 28 5.5018137209117413e-04</internalNodes>
          <leafValues>
            2.8432834148406982e-01 -9.6625685691833496e-01</leafValues></_></weakClassifiers></_>
    <!-- stage 7 -->
    <_>
      <maxWeakCount>3</maxWeakCount>
      <stageThreshold>-1.2473211288452148e+00</stageThreshold>
      <weakClassifiers>
        <_>
          <internalNodes>
            0 -1 73 -3.4281890839338303e-02</internalNodes>
          <leafValues>
            3.6645963788032532e-01 -8.7734913825988770e-01</leafValues></_>
        <_>
          <internalNodes>
            0 -1 54 -1.9704908132553101e-02</internalNodes>
          <leafValues>
            4.8274257779121399e-01 -6.7631810903549194e-01</leafValues></_>
        <_>
          <internalNodes>
            0 -1 17 -4.9954588757827878e-04</internalNodes>
          <leafValues>
            -7.6208686828613281e-01 3.0634614825248718e-01</leafValues></_></weakClassifiers></_>
    <!-- stage 8 -->
    <_>
      <maxWeakCount>6</maxWeakCount>
      <stageThreshold>-1.5293409824371338e+00</stageThreshold>
      <weakClassifiers>
        <_>
          <internalNodes>
            0 -1 74 -2.8406003490090370e-02</internalNodes>
          <leafValues>
            3.9823007583618164e-01 -8.2436263561248779e-01</leafValues></_>
        <_>
          <internalNodes>
            0 -1 85 -2.2264949977397919e-02</internalNodes>
          <leafValues>
            5.4353487491607666e-01 -5.8401101827621460e-01</leafValues></_>
        <_>
          <internalNodes>
            0 -1 91 -7.8045832924544811e-04</internalNodes>
          <leafValues>
            -8.4133750200271606e-01 2.2918520867824554e-01</leafValues></_>
        <_>
          <internalNodes>
            0 -1 114 6.5586273558437824e-04</internalNodes>
          <leafValues>
            2.3189464211463928e-01 -8.0859076976776123e-01</leafValues></_>
        <_>
          <internalNodes>
            0 -1 123 -5.3268711781129241e-04</internalNodes>
          <leafValues>
            -8.0201244354248047e-01 2.5594079494476318e-01</leafValues></_>
        <_>
          <internalNodes>
            0 -1 16 3.4838516730815172e-03</internalNodes>
          <leafValues>
            2.3253469169139862e-01 -8.2449328899383545e-01</leafValues></_></weakClassifiers></_>
    <!-- stage 9 -->
    <_>
      <maxWeakCount>7</maxWeakCount>
      <stageThreshold>-2.1142976284027100e+00</stageThreshold>
      <weakClassifiers>
        <_>
          <internalNodes>
            0 -1 75 -2.4768030270934105e-02</internalNodes>
          <leafValues>
            -1.0084033757448196e-01 -8.6081367731094360e-01</leafValues></_>
        <_>
          <internalNodes>
            0 -1 55 -5.1210410892963409e-02</internalNodes>
          <leafValues>
            5.6873798370361328e-01 -5.2175855636596680e-01</leafValues></_>
        <_>
          <internalNodes>
            0 -1 3 -3.2764358911663294e-03</internalNodes>
          <leafValues>
            -7.4952840805053711e-01 2.4950291216373444e-01</leafValues></_>
        <_>
          <internalNodes>
            0 -1 68 -2.0010014995932579e-03</internalNodes>
          <leafValues>
            -8.1207031011581421e-01 2.5467619299888611e-01</leafValues></_>
        <_>
          <internalNodes>
            0 -1 36 8.0538988113403320e-02</internalNodes>
          <leafValues>
            -6.4147949218750000e-01 3.1187373399734497e-01</leafValues></_>
        <_>
          <internalNodes>
            0 -1 57 4.3166228570044041e-03</internalNodes>
          <leafValues>
            2.0874431729316711e-01 -9.3827956914901733e-01</leafValues></_>
        <_>
          <internalNodes>
            0 -1 67 -4.6270610764622688e-03</internalNodes>
          <leafValues>
            -8.2914227247238159e-01 2.6357728242874146e-01</leafValues></_></weakClassifiers></_>
    <!-- stage 10 -->
    <_>
      <maxWeakCount>8</maxWeakCount>
      <stageThreshold>-1.9086601734161377e+00</stageThreshold>
      <weakClassifiers>
        <_>
          <internalNodes>
            0 -1 18 -6.1778657138347626e-02</internalNodes>
          <leafValues>
            9.8039217293262482e-02 -7.8317755460739136e-01</leafValues></_>
        <_>
          <internalNodes>
            0 -1 92 -9.5661461353302002e-02</internalNodes>
          <leafValues>
            9.1667503118515015e-02 -8.0926334857940674e-01</leafValues></_>
        <_>
          <internalNodes>
            0 -1 121 -1.9961884245276451e-03</internalNodes>
          <leafValues>
            -8.9053356647491455e-01 1.4498569071292877e-01</leafValues></_>
        <_>
          <internalNodes>
            0 -1 120 3.1907383818179369e-03</internalNodes>
          <leafValues>
            2.1838210523128510e-01 -7.0896333456039429e-01</leafValues></_>
        <_>
          <internalNodes>
            0 -1 110 9.4678252935409546e-04</internalNodes>
          <leafValues>
            1.4747971296310425e-01 -9.8691588640213013e-01</leafValues></_>
        <_>
          <internalNodes>
            0 -1 51 -2.3862824309617281e-03</internalNodes>
          <leafValues>
            1.7527446150779724e-01 -7.9790073633193970e-01</leafValues></_>
        <_>
          <internalNodes>
            0 -1 71 -3.4296705853193998e-03</internalNodes>
          <leafValues>
            4.5064184069633484e-01 -4.0927773714065552e-01</leafValues></_>
        <_>
          <internalNodes>
            0 -1 90 -4.9854945391416550e-03</internalNodes>
          <leafValues>
            3.6371567845344543e-01 -5.2563768625259399e-01</leafValues></_></weakClassifiers></_>
    <!-- stage 11 -->
    <_>
      <maxWeakCount>9</maxWeakCount>
      <stageThreshold>-2.0775640010833740e+00</stageThreshold>
      <weakClassifiers>
        <_>
          <internalNodes>
            0 -1 108 1.6330596059560776e-02</internalNodes>
          <leafValues>
            -7.7351599931716919e-01 2.4675324559211731e-01</leafValues></_>
        <_>
          <internalNodes>
            0 -1 26 -9.5234706997871399e-02</internalNodes>
          <leafValues>
            1.7933773994445801e-01 -6.2218177318572998e-01</leafValues></_>
        <_>
          <internalNodes>
            0 -1 43 6.6673819674178958e-04</internalNodes>
          <leafValues>
            1.8105961382389069e-01 -8.6684054136276245e-01</leafValues></_>
        <_>
          <internalNodes>
            0 -1 42 -2.7302252128720284e-03</internalNodes>
          <leafValues>
            -8.4231555461883545e-01 1.9734309613704681e-01</leafValues></_>
        <_>
          <internalNodes>
            0 -1 38 4.9519422464072704e-03</internalNodes>
          <leafValues>
            1.5477168560028076e-01 -9.4836974143981934e-01</leafValues></_>
        <_>
          <internalNodes>
            0 -1 113 7.7310943743214011e-04</internalNodes>
          <leafValues>
            1.7736202478408813e-01 -7.5653195381164551e-01</leafValues></_>
        <_>
          <internalNodes>
            0 -1 102 3.1029703095555305e-03</internalNodes>
          <leafValues>
            -7.4449288845062256e-01 2.2313563525676727e-01</leafValues></_>
        <_>
          <internalNodes>
            0 -1 2 -3.4566670656204224e-03</internalNodes>
          <leafValues>
            -8.7733876705169678e-01 1.5579375624656677e-01</leafValues></_>
        <_>
          <internalNodes>
            0 -1 104 3.2068026484921575e-04</internalNodes>
          <leafValues>
            2.3595522344112396e-01 -5.9455221891403198e-01</leafValues></_></weakClassifiers></_>
    <!-- stage 12 -->
    <_>
      <maxWeakCount>9</maxWeakCount>
      <stageThreshold>-1.7854696512222290e+00</stageThreshold>
      <weakClassifiers>
        <_>
          <internalNodes>
            0 -1 94 1.8442773818969727e-01</internalNodes>
          <leafValues>
            -9.0704226493835449e-01 -3.9826840162277222e-01</leafValues></_>
        <_>
          <internalNodes>
            0 -1 20 -7.7484190464019775e-02</internalNodes>
          <leafValues>
            2.5458052754402161e-01 -5.5955195426940918e-01</leafValues></_>
        <_>
          <internalNodes>
            0 -1 14 5.9867324307560921e-03</internalNodes>
          <leafValues>
            1.6935743391513824e-01 -8.2383322715759277e-01</leafValues></_>
        <_>
          <internalNodes>
            0 -1 8 -4.1687292978167534e-03</internalNodes>
          <leafValues>
            -6.9803941249847412e-01 2.0685701072216034e-01</leafValues></_>
        <_>
          <internalNodes>
            0 -1 87 1.4188583008944988e-04</internalNodes>
          <leafValues>
            -4.4852340221405029e-01 3.4065154194831848e-01</leafValues></_>
        <_>
          <internalNodes>
            0 -1 58 2.9275259003043175e-03</internalNodes>
          <leafValues>
            1.8835532665252686e-01 -8.5508942604064941e-01</leafValues></_>
        <_>
          <internalNodes>
            0 -1 37 9.7234861459583044e-04</internalNodes>
          <leafValues>
            9.5822021365165710e-02 -9.7554212808609009e-01</leafValues></_>
        <_>
          <internalNodes>
            0 -1 93 2.4165684590116143e-04</internalNodes>
          <leafValues>
            -4.6829080581665039e-01 2.6875060796737671e-01</leafValues></_>
        <_>
          <internalNodes>
            0 -1 39 -8.3506722003221512e-03</internalNodes>
          <leafValues>
            -7.8654444217681885e-01 1.9369624555110931e-01</leafValues></_></weakClassifiers></_>
    <!-- stage 13 -->
    <_>
      <maxWeakCount>8</maxWeakCount>
      <stageThreshold>-1.4487695693969727e+00</stageThreshold>
      <weakClassifiers>
        <_>
          <internalNodes>
            0 -1 106 -4.8300363123416901e-03</internalNodes>
          <leafValues>
            5.8823529630899429e-02 -7.7943927049636841e-01</leafValues></_>
        <_>
          <internalNodes>
            0 -1 4 -1.9344227015972137e-01</internalNodes>
          <leafValues>
            1.9190695881843567e-01 -5.5165785551071167e-01</leafValues></_>
        <_>
          <internalNodes>
            0 -1 98 4.0850698947906494e-02</internalNodes>
          <leafValues>
            -6.3336789608001709e-01 2.0677429437637329e-01</leafValues></_>
        <_>
          <internalNodes>
            0 -1 84 7.9044625163078308e-03</internalNodes>
          <leafValues>
            1.5682487189769745e-01 -8.6970371007919312e-01</leafValues></_>
        <_>
          <internalNodes>
            0 -1 89 -8.0855675041675568e-03</internalNodes>
          <leafValues>
            5.6056582927703857e-01 -3.3882877230644226e-01</leafValues></_>
        <_>
          <internalNodes>
            0 -1 122 1.0430875699967146e-03</internalNodes>
          <leafValues>
            1.7128935456275940e-01 -9.0287977457046509e-01</leafValues></_>
        <_>
          <internalNodes>
            0 -1 47 -2.9212222434580326e-03</internalNodes>
          <leafValues>
            4.2873179912567139e-01 -3.2716643810272217e-01</leafValues></_>
        <_>
          <internalNodes>
            0 -1 31 -7.9548347275704145e-04</internalNodes>
          <leafValues>
            -9.4454771280288696e-01 1.4056813716888428e-01</leafValues></_></weakClassifiers></_>
    <!-- stage 14 -->
    <_>
      <maxWeakCount>9</maxWeakCount>
      <stageThreshold>-1.7292667627334595e+00</stageThreshold>
      <weakClassifiers>
        <_>
          <internalNodes>
            0 -1 23 -1.7253313958644867e-01</internalNodes>
          <leafValues>
            -3.7931033968925476e-01 -8.7989556789398193e-01</leafValues></_>
        <_>
          <internalNodes>
            0 -1 86 1.2894777581095695e-02</internalNodes>
          <leafValues>
            -8.0700933933258057e-01 2.9602346941828728e-02</leafValues></_>
        <_>
          <internalNodes>
            0 -1 15 -2.6043448597192764e-03</internalNodes>
          <leafValues>
            1.3500264286994934e-01 -7.6660656929016113e-01</leafValues></_>
        <_>
          <internalNodes>
            0 -1 24 -5.2660396322607994e-03</internalNodes>
          <leafValues>
            2.6423078775405884e-01 -4.8691880702972412e-01</leafValues></_>
        <_>
          <internalNodes>
            0 -1 70 8.0616669729351997e-03</internalNodes>
          <leafValues>
            -1.9398263096809387e-01 7.1931052207946777e-01</leafValues></_>
        <_>
          <internalNodes>
            0 -1 77 -4.3173851445317268e-03</internalNodes>
          <leafValues>
            7.4871087074279785e-01 -2.0118345320224762e-01</leafValues></_>
        <_>
          <internalNodes>
            0 -1 118 1.4584413729608059e-03</internalNodes>
          <leafValues>
            1.8859954178333282e-01 -9.2683523893356323e-01</leafValues></_>
        <_>
          <internalNodes>
            0 -1 11 4.0548481047153473e-03</internalNodes>
          <leafValues>
            1.1596626043319702e-01 -7.8300690650939941e-01</leafValues></_>
        <_>
          <internalNodes>
            0 -1 101 8.4896888583898544e-03</internalNodes>
          <leafValues>
            -2.8863361477851868e-01 4.7473222017288208e-01</leafValues></_></weakClassifiers></_>
    <!-- stage 15 -->
    <_>
      <maxWeakCount>9</maxWeakCount>
      <stageThreshold>-1.7902810573577881e+00</stageThreshold>
      <weakClassifiers>
        <_>
          <internalNodes>
            0 -1 27 -4.0427520871162415e-02</internalNodes>
          <leafValues>
            -2.9457363486289978e-01 -8.2275712490081787e-01</leafValues></_>
        <_>
          <internalNodes>
            0 -1 41 -3.3653585705906153e-04</internalNodes>
          <leafValues>
            -1.0895351879298687e-02 -7.8713661432266235e-01</leafValues></_>
        <_>
          <internalNodes>
            0 -1 96 1.7516569793224335e-01</internalNodes>
          <leafValues>
            -5.1543539762496948e-01 2.4059979617595673e-01</leafValues></_>
        <_>
          <internalNodes>
            0 -1 52 -4.2316727340221405e-03</internalNodes>
          <leafValues>
            -6.2809902429580688e-01 2.4610525369644165e-01</leafValues></_>
        <_>
          <internalNodes>
            0 -1 50 -3.5398423206061125e-03</internalNodes>
          <leafValues>
            1.6007661819458008e-01 -6.7927116155624390e-01</leafValues></_>
        <_>
          <internalNodes>
            0 -1 0 -2.0716150174848735e-04</internalNodes>
          <leafValues>
            -8.7112993001937866e-01 1.2685947120189667e-01</leafValues></_>
        <_>
          <internalNodes>
            0 -1 115 3.8445182144641876e-04</internalNodes>
          <leafValues>
            1.1216607689857483e-01 -8.2779818773269653e-01</leafValues></_>
        <_>
          <internalNodes>
            0 -1 21 -1.2388440966606140e-01</internalNodes>
          <leafValues>
            3.6641407012939453e-01 -3.6142924427986145e-01</leafValues></_>
        <_>
          <internalNodes>
            0 -1 63 -2.5750966742634773e-03</internalNodes>
          <leafValues>
            2.1171948313713074e-01 -7.2497135400772095e-01</leafValues></_></weakClassifiers></_>
    <!-- stage 16 -->
    <_>
      <maxWeakCount>10</maxWeakCount>
      <stageThreshold>-1.7362140417098999e+00</stageThreshold>
      <weakClassifiers>
        <_>
          <internalNodes>
            0 -1 61 -1.8110860139131546e-02</internalNodes>
          <leafValues>
            -4.4117648154497147e-02 -7.9343628883361816e-01</leafValues></_>
        <_>
          <internalNodes>
            0 -1 62 -6.0274377465248108e-02</internalNodes>
          <leafValues>
            3.3230108022689819e-01 -5.2584373950958252e-01</leafValues></_>
        <_>
          <internalNodes>
            0 -1 109 2.1326553542166948e-04</internalNodes>
          <leafValues>
            1.3343204557895660e-01 -7.9658424854278564e-01</leafValues></_>
        <_>
          <internalNodes>
            0 -1 83 -7.6913465745747089e-03</internalNodes>
          <leafValues>
            3.2377389073371887e-01 -4.6490687131881714e-01</leafValues></_>
        <_>
          <internalNodes>
            0 -1 32 -8.5236772894859314e-02</internalNodes>
          <leafValues>
            3.2714918255805969e-01 -3.5916510224342346e-01</leafValues></_>
        <_>
          <internalNodes>
            0 -1 99 -2.6017769705504179e-03</internalNodes>
          <leafValues>
            7.0372182130813599e-01 -1.9816036522388458e-01</leafValues></_>
        <_>
          <internalNodes>
            0 -1 34 -5.4941782727837563e-03</internalNodes>
          <leafValues>
            2.2424523532390594e-01 -6.0039216279983521e-01</leafValues></_>
        <_>
          <internalNodes>
            0 -1 97 1.6174998017959297e-04</internalNodes>
          <leafValues>
            -2.9364493489265442e-01 4.2222410440444946e-01</leafValues></_>
        <_>
          <internalNodes>
            0 -1 88 8.6938624735921621e-04</internalNodes>
          <leafValues>
            1.4596338570117950e-01 -8.3221083879470825e-01</leafValues></_>
        <_>
          <internalNodes>
            0 -1 82 6.3758995383977890e-04</internalNodes>
          <leafValues>
            -3.2004731893539429e-01 3.9530265331268311e-01</leafValues></_></weakClassifiers></_>
    <!-- stage 17 -->
    <_>
      <maxWeakCount>10</maxWeakCount>
      <stageThreshold>-1.5814270973205566e+00</stageThreshold>
      <weakClassifiers>
        <_>
          <internalNodes>
            0 -1 5 -6.4270389080047607e-01</internalNodes>
          <leafValues>
            -4.1176471114158630e-01 -8.7416332960128784e-01</leafValues></_>
        <_>
          <internalNodes>
            0 -1 44 -6.2863282859325409e-02</internalNodes>
          <leafValues>
            1.3887490332126617e-01 -5.7848703861236572e-01</leafValues></_>
        <_>
          <internalNodes>
            0 -1 1 -9.2497449368238449e-03</internalNodes>
          <leafValues>
            -7.6078629493713379e-01 1.3769580423831940e-01</leafValues></_>
        <_>
          <internalNodes>
            0 -1 79 7.1167526766657829e-03</internalNodes>
          <leafValues>
            -2.1931988000869751e-01 5.9985518455505371e-01</leafValues></_>
        <_>
          <internalNodes>
            0 -1 117 -6.3929199241101742e-03</internalNodes>
          <leafValues>
            -8.2080554962158203e-01 1.4603422582149506e-01</leafValues></_>
        <_>
          <internalNodes>
            0 -1 78 -3.6538622225634754e-05</internalNodes>
          <leafValues>
            2.8727200627326965e-01 -4.3912360072135925e-01</leafValues></_>
        <_>
          <internalNodes>
            0 -1 72 -2.7013614773750305e-02</internalNodes>
          <leafValues>
            -7.8082615137100220e-01 1.5742895007133484e-01</leafValues></_>
        <_>
          <internalNodes>
            0 -1 81 -3.9907218888401985e-03</internalNodes>
          <leafValues>
            1.6248604655265808e-01 -6.6528731584548950e-01</leafValues></_>
        <_>
          <internalNodes>
            0 -1 100 -3.8465335965156555e-03</internalNodes>
          <leafValues>
            4.1502815485000610e-01 -2.8377652168273926e-01</leafValues></_>
        <_>
          <internalNodes>
            0 -1 33 -2.9865132644772530e-02</internalNodes>
          <leafValues>
            4.9229612946510315e-01 -2.7426761388778687e-01</leafValues></_></weakClassifiers></_></stages>
  <features>
    <_>
      <rects>
        <_>
          0 0 2 1 -1.</_>
        <_>
          1 0 1 1 2.</_></rects>
      <tilted>0</tilted></_>
    <_>
      <rects>
        <_>
          0 0 1 24 -1.</_>
        <_>
          0 12 1 12 2.</_></rects>
      <tilted>0</tilted></_>
    <_>
      <rects>
        <_>
          0 0 8 1 -1.</_>
        <_>
          4 0 4 1 2.</_></rects>
      <tilted>0</tilted></_>
    <_>
      <rects>
        <_>
          0 0 15 1 -1.</_>
        <_>
          5 0 5 1 3.</_></rects>
      <tilted>0</tilted></_>
    <_>
      <rects>
        <_>
          0 0 10 21 -1.</_>
        <_>
          5 0 5 21 2.</_></rects>
      <tilted>0</tilted></_>
    <_>
      <rects>
        <_>
          0 1 24 23 -1.</_>
        <_>
          8 1 8 23 3.</_></rects>
      <tilted>0</tilted></_>
    <_>
      <rects>
        <_>
          0 2 24 20 -1.</_>
        <_>
          8 2 8 20 3.</_></rects>
      <tilted>0</tilted></_>
    <_>
      <rects>
        <_>
          0 2 24 21 -1.</_>
        <_>
          8 2 8 21 3.</_></rects>
      <tilted>0</tilted></_>
    <_>
      <rects>
        <_>
          0 3 1 18 -1.</_>
        <_>
          0 9 1 6 3.</_></rects>
      <tilted>0</tilted></_>
    <_>
      <rects>
        <_>
          0 3 24 18 -1.</_>
        <_>
          8 3 8 18 3.</_></rects>
      <tilted>0</tilted></_>
    <_>
      <rects>
        <_>
          0 3 24 19 -1.</_>
        <_>
          8 3 8 19 3.</_></rects>
      <tilted>0</tilted></_>
    <_>
      <rects>
        <_>
          0 4 1 12 -1.</_>
        <_>
          0 8 1 4 3.</_></rects>
      <tilted>0</tilted></_>
    <_>
      <rects>
        <_>
          0 5 8 19 -1.</_>
        <_>
          4 5 4 19 2.</_></rects>
      <tilted>0</tilted></_>
    <_>
      <rects>
        <_>
          0 5 24 17 -1.</_>
        <_>
          8 5 8 17 3.</_></rects>
      <tilted>0</tilted></_>
    <_>
      <rects>
        <_>
          0 6 3 18 -1.</_>
        <_>
          0 12 3 6 3.</_></rects>
      <tilted>0</tilted></_>
    <_>
      <rects>
        <_>
          0 6 11 15 -1.</_>
        <_>
          0 11 11 5 3.</_></rects>
      <tilted>0</tilted></_>
    <_>
      <rects>
        <_>
          0 8 2 10 -1.</_>
        <_>
          0 13 2 5 2.</_></rects>
      <tilted>0</tilted></_>
    <_>
      <rects>
        <_>
          0 9 2 4 -1.</_>
        <_>
          1 9 1 4 2.</_></rects>
      <tilted>0</tilted></_>
    <_>
      <rects>
        <_>
          0 11 6 8 -1.</_>
        <_>
          3 11 3 8 2.</_></rects>
      <tilted>0</tilted></_>
    <_>
      <rects>
        <_>
          0 11 8 7 -1.</_>
        <_>
          4 11 4 7 2.</_></rects>
      <tilted>0</tilted></_>
    <_>
      <rects>
        <_>
          0 11 8 9 -1.</_>
        <_>
          4 11 4 9 2.</_></rects>
      <tilted>0</tilted></_>
    <_>
      <rects>
        <_>
          0 12 21 12 -1.</_>
        <_>
          0 16 21 4 3.</_></rects>
      <tilted>0</tilted></_>
    <_>
      <rects>
        <_>
          0 14 1 9 -1.</_>
        <_>
          0 17 1 3 3.</_></rects>
      <tilted>0</tilted></_>
    <_>
      <rects>
        <_>
          0 16 24 5 -1.</_>
        <_>
          8 16 8 5 3.</_></rects>
      <tilted>0</tilted></_>
    <_>
      <rects>
        <_>
          0 16 12 6 -1.</_>
        <_>
          0 18 12 2 3.</_></rects>
      <tilted>0</tilted></_>
    <_>
      <rects>
        <_>
          0 18 1 4 -1.</_>
        <_>
          0 20 1 2 2.</_></rects>
      <tilted>0</tilted></_>
    <_>
      <rects>
        <_>
          0 18 24 3 -1.</_>
        <_>
          8 18 8 3 3.</_></rects>
      <tilted>0</tilted></_>
    <_>
      <rects>
        <_>
          0 20 24 1 -1.</_>
        <_>
          8 20 8 1 3.</_></rects>
      <tilted>0</tilted></_>
    <_>
      <rects>
        <_>
          0 21 2 2 -1.</_>
        <_>
          1 21 1 2 2.</_></rects>
      <tilted>0</tilted></_>
    <_>
      <rects>
        <_>
          0 21 2 3 -1.</_>
        <_>
          1 21 1 3 2.</_></rects>
      <tilted>0</tilted></_>
    <_>
      <rects>
        <_>
          0 22 8 2 -1.</_>
        <_>
          0 23 8 1 2.</_></rects>
      <tilted>0</tilted></_>
    <_>
      <rects>
        <_>
          0 23 4 1 -1.</_>
        <_>
          2 23 2 1 2.</_></rects>
      <tilted>0</tilted></_>
    <_>
      <rects>
        <_>
          1 0 21 15 -1.</_>
        <_>
          1 5 21 5 3.</_></rects>
      <tilted>0</tilted></_>
    <_>
      <rects>
        <_>
          1 3 15 3 -1.</_>
        <_>
          6 3 5 3 3.</_></rects>
      <tilted>0</tilted></_>
    <_>
      <rects>
        <_>
          1 6 23 8 -1.</_>
        <_>
          1 10 23 4 2.</_></rects>
      <tilted>0</tilted></_>
    <_>
      <rects>
        <_>
          1 16 12 8 -1.</_>
        <_>
          1 20 12 4 2.</_></rects>
      <tilted>0</tilted></_>
    <_>
      <rects>
        <_>
          1 16 19 8 -1.</_>
        <_>
          1 20 19 4 2.</_></rects>
      <tilted>0</tilted></_>
    <_>
      <rects>
        <_>
          1 23 6 1 -1.</_>
        <_>
          3 23 2 1 3.</_></rects>
      <tilted>0</tilted></_>
    <_>
      <rects>
        <_>
          1 23 18 1 -1.</_>
        <_>
          7 23 6 1 3.</_></rects>
      <tilted>0</tilted></_>
    <_>
      <rects>
        <_>
          2 0 18 1 -1.</_>
        <_>
          8 0 6 1 3.</_></rects>
      <tilted>0</tilted></_>
    <_>
      <rects>
        <_>
          2 7 6 7 -1.</_>
        <_>
          5 7 3 7 2.</_></rects>
      <tilted>0</tilted></_>
    <_>
      <rects>
        <_>
          2 13 12 1 -1.</_>
        <_>
          6 13 4 1 3.</_></rects>
      <tilted>0</tilted></_>
    <_>
      <rects>
        <_>
          2 23 12 1 -1.</_>
        <_>
          6 23 4 1 3.</_></rects>
      <tilted>0</tilted></_>
    <_>
      <rects>
        <_>
          3 0 6 1 -1.</_>
        <_>
          5 0 2 1 3.</_></rects>
      <tilted>0</tilted></_>
    <_>
      <rects>
        <_>
          3 0 18 12 -1.</_>
        <_>
          3 4 18 4 3.</_></rects>
      <tilted>0</tilted></_>
    <_>
      <rects>
        <_>
          3 3 21 20 -1.</_>
        <_>
          10 3 7 20 3.</_></rects>
      <tilted>0</tilted></_>
    <_>
      <rects>
        <_>
          3 9 4 15 -1.</_>
        <_>
          3 14 4 5 3.</_></rects>
      <tilted>0</tilted></_>
    <_>
      <rects>
        <_>
          3 17 8 4 -1.</_>
        <_>
          3 17 4 2 2.</_>
        <_>
          7 19 4 2 2.</_></rects>
      <tilted>0</tilted></_>
    <_>
      <rects>
        <_>
          4 0 19 8 -1.</_>
        <_>
          4 4 19 4 2.</_></rects>
      <tilted>0</tilted></_>
    <_>
      <rects>
        <_>
          4 7 4 8 -1.</_>
        <_>
          6 7 2 8 2.</_></rects>
      <tilted>0</tilted></_>
    <_>
      <rects>
        <_>
          5 0 2 23 -1.</_>
        <_>
          6 0 1 23 2.</_></rects>
      <tilted>0</tilted></_>
    <_>
      <rects>
        <_>
          5 0 4 11 -1.</_>
        <_>
          7 0 2 11 2.</_></rects>
      <tilted>0</tilted></_>
    <_>
      <rects>
        <_>
          5 0 18 1 -1.</_>
        <_>
          11 0 6 1 3.</_></rects>
      <tilted>0</tilted></_>
    <_>
      <rects>
        <_>
          5 0 16 24 -1.</_>
        <_>
          5 8 16 8 3.</_></rects>
      <tilted>0</tilted></_>
    <_>
      <rects>
        <_>
          5 1 13 6 -1.</_>
        <_>
          5 3 13 2 3.</_></rects>
      <tilted>0</tilted></_>
    <_>
      <rects>
        <_>
          5 1 15 4 -1.</_>
        <_>
          5 3 15 2 2.</_></rects>
      <tilted>0</tilted></_>
    <_>
      <rects>
        <_>
          5 18 13 6 -1.</_>
        <_>
          5 21 13 3 2.</_></rects>
      <tilted>0</tilted></_>
    <_>
      <rects>
        <_>
          5 23 15 1 -1.</_>
        <_>
          10 23 5 1 3.</_></rects>
      <tilted>0</tilted></_>
    <_>
      <rects>
        <_>
          6 0 12 1 -1.</_>
        <_>
          10 0 4 1 3.</_></rects>
      <tilted>0</tilted></_>
    <_>
      <rects>
        <_>
          6 0 15 12 -1.</_>
        <_>
          6 6 15 6 2.</_></rects>
      <tilted>0</tilted></_>
    <_>
      <rects>
        <_>
          6 0 18 14 -1.</_>
        <_>
          6 7 18 7 2.</_></rects>
      <tilted>0</tilted></_>
    <_>
      <rects>
        <_>
          6 1 4 4 -1.</_>
        <_>
          6 3 4 2 2.</_></rects>
      <tilted>0</tilted></_>
    <_>
      <rects>
        <_>
          6 3 18 3 -1.</_>
        <_>
          12 3 6 3 3.</_></rects>
      <tilted>0</tilted></_>
    <_>
      <rects>
        <_>
          6 5 18 12 -1.</_>
        <_>
          6 9 18 4 3.</_></rects>
      <tilted>0</tilted></_>
    <_>
      <rects>
        <_>
          6 16 13 8 -1.</_>
        <_>
          6 20 13 4 2.</_></rects>
      <tilted>0</tilted></_>
    <_>
      <rects>
        <_>
          6 18 12 6 -1.</_>
        <_>
          6 21 12 3 2.</_></rects>
      <tilted>0</tilted></_>
    <_>
      <rects>
        <_>
          6 19 14 4 -1.</_>
        <_>
          6 21 14 2 2.</_></rects>
      <tilted>0</tilted></_>
    <_>
      <rects>
        <_>
          6 23 12 1 -1.</_>
        <_>
          10 23 4 1 3.</_></rects>
      <tilted>0</tilted></_>
    <_>
      <rects>
        <_>
          7 0 10 1 -1.</_>
        <_>
          12 0 5 1 2.</_></rects>
      <tilted>0</tilted></_>
    <_>
      <rects>
        <_>
          7 0 11 6 -1.</_>
        <_>
          7 3 11 3 2.</_></rects>
      <tilted>0</tilted></_>
    <_>
      <rects>
        <_>
          7 1 10 3 -1.</_>
        <_>
          7 2 10 1 3.</_></rects>
      <tilted>0</tilted></_>
    <_>
      <rects>
        <_>
          7 2 11 3 -1.</_>
        <_>
          7 3 11 1 3.</_></rects>
      <tilted>0</tilted></_>
    <_>
      <rects>
        <_>
          7 8 9 7 -1.</_>
        <_>
          10 8 3 7 3.</_></rects>
      <tilted>0</tilted></_>
    <_>
      <rects>
        <_>
          7 15 6 9 -1.</_>
        <_>
          7 18 6 3 3.</_></rects>
      <tilted>0</tilted></_>
    <_>
      <rects>
        <_>
          7 17 7 6 -1.</_>
        <_>
          7 19 7 2 3.</_></rects>
      <tilted>0</tilted></_>
    <_>
      <rects>
        <_>
          7 17 12 6 -1.</_>
        <_>
          7 19 12 2 3.</_></rects>
      <tilted>0</tilted></_>
    <_>
      <rects>
        <_>
          8 0 9 6 -1.</_>
        <_>
          8 3 9 3 2.</_></rects>
      <tilted>0</tilted></_>
    <_>
      <rects>
        <_>
          8 1 9 3 -1.</_>
        <_>
          8 2 9 1 3.</_></rects>
      <tilted>0</tilted></_>
    <_>
      <rects>
        <_>
          8 6 2 1 -1.</_>
        <_>
          9 6 1 1 2.</_></rects>
      <tilted>0</tilted></_>
    <_>
      <rects>
        <_>
          8 21 7 3 -1.</_>
        <_>
          8 22 7 1 3.</_></rects>
      <tilted>0</tilted></_>
    <_>
      <rects>
        <_>
          9 0 12 6 -1.</_>
        <_>
          9 3 12 3 2.</_></rects>
      <tilted>0</tilted></_>
    <_>
      <rects>
        <_>
          9 9 2 15 -1.</_>
        <_>
          9 14 2 5 3.</_></rects>
      <tilted>0</tilted></_>
    <_>
      <rects>
        <_>
          9 19 12 2 -1.</_>
        <_>
          9 19 6 1 2.</_>
        <_>
          15 20 6 1 2.</_></rects>
      <tilted>0</tilted></_>
    <_>
      <rects>
        <_>
          10 15 2 9 -1.</_>
        <_>
          10 18 2 3 3.</_></rects>
      <tilted>0</tilted></_>
    <_>
      <rects>
        <_>
          10 23 14 1 -1.</_>
        <_>
          17 23 7 1 2.</_></rects>
      <tilted>0</tilted></_>
    <_>
      <rects>
        <_>
          11 0 4 9 -1.</_>
        <_>
          11 3 4 3 3.</_></rects>
      <tilted>0</tilted></_>
    <_>
      <rects>
        <_>
          11 0 12 6 -1.</_>
        <_>
          17 0 6 6 2.</_></rects>
      <tilted>0</tilted></_>
    <_>
      <rects>
        <_>
          11 18 10 2 -1.</_>
        <_>
          11 18 5 1 2.</_>
        <_>
          16 19 5 1 2.</_></rects>
      <tilted>0</tilted></_>
    <_>
      <rects>
        <_>
          11 23 6 1 -1.</_>
        <_>
          13 23 2 1 3.</_></rects>
      <tilted>0</tilted></_>
    <_>
      <rects>
        <_>
          12 1 3 6 -1.</_>
        <_>
          12 3 3 2 3.</_></rects>
      <tilted>0</tilted></_>
    <_>
      <rects>
        <_>
          12 15 2 9 -1.</_>
        <_>
          12 18 2 3 3.</_></rects>
      <tilted>0</tilted></_>
    <_>
      <rects>
        <_>
          12 23 6 1 -1.</_>
        <_>
          14 23 2 1 3.</_></rects>
      <tilted>0</tilted></_>
    <_>
      <rects>
        <_>
          13 0 7 24 -1.</_>
        <_>
          13 8 7 8 3.</_></rects>
      <tilted>0</tilted></_>
    <_>
      <rects>
        <_>
          13 15 4 4 -1.</_>
        <_>
          13 15 2 2 2.</_>
        <_>
          15 17 2 2 2.</_></rects>
      <tilted>0</tilted></_>
    <_>
      <rects>
        <_>
          14 0 10 24 -1.</_>
        <_>
          19 0 5 24 2.</_></rects>
      <tilted>0</tilted></_>
    <_>
      <rects>
        <_>
          14 3 10 17 -1.</_>
        <_>
          19 3 5 17 2.</_></rects>
      <tilted>0</tilted></_>
    <_>
      <rects>
        <_>
          14 3 10 20 -1.</_>
        <_>
          19 3 5 20 2.</_></rects>
      <tilted>0</tilted></_>
    <_>
      <rects>
        <_>
          14 10 2 2 -1.</_>
        <_>
          14 11 2 1 2.</_></rects>
      <tilted>0</tilted></_>
    <_>
      <rects>
        <_>
          14 12 10 6 -1.</_>
        <_>
          19 12 5 6 2.</_></rects>
      <tilted>0</tilted></_>
    <_>
      <rects>
        <_>
          16 2 4 4 -1.</_>
        <_>
          16 2 2 2 2.</_>
        <_>
          18 4 2 2 2.</_></rects>
      <tilted>0</tilted></_>
    <_>
      <rects>
        <_>
          16 4 6 5 -1.</_>
        <_>
          18 4 2 5 3.</_></rects>
      <tilted>0</tilted></_>
    <_>
      <rects>
        <_>
          16 7 4 10 -1.</_>
        <_>
          16 7 2 5 2.</_>
        <_>
          18 12 2 5 2.</_></rects>
      <tilted>0</tilted></_>
    <_>
      <rects>
        <_>
          16 10 1 14 -1.</_>
        <_>
          16 17 1 7 2.</_></rects>
      <tilted>0</tilted></_>
    <_>
      <rects>
        <_>
          16 10 6 6 -1.</_>
        <_>
          19 10 3 6 2.</_></rects>
      <tilted>0</tilted></_>
    <_>
      <rects>
        <_>
          17 0 6 2 -1.</_>
        <_>
          17 0 3 1 2.</_>
        <_>
          20 1 3 1 2.</_></rects>
      <tilted>0</tilted></_>
    <_>
      <rects>
        <_>
          18 2 6 18 -1.</_>
        <_>
          21 2 3 18 2.</_></rects>
      <tilted>0</tilted></_>
    <_>
      <rects>
        <_>
          18 3 1 4 -1.</_>
        <_>
          18 5 1 2 2.</_></rects>
      <tilted>0</tilted></_>
    <_>
      <rects>
        <_>
          19 0 5 2 -1.</_>
        <_>
          19 1 5 1 2.</_></rects>
      <tilted>0</tilted></_>
    <_>
      <rects>
        <_>
          19 6 4 3 -1.</_>
        <_>
          21 6 2 3 2.</_></rects>
      <tilted>0</tilted></_>
    <_>
      <rects>
        <_>
          20 0 3 1 -1.</_>
        <_>
          21 0 1 1 3.</_></rects>
      <tilted>0</tilted></_>
    <_>
      <rects>
        <_>
          20 0 4 1 -1.</_>
        <_>
          22 0 2 1 2.</_></rects>
      <tilted>0</tilted></_>
    <_>
      <rects>
        <_>
          21 0 3 6 -1.</_>
        <_>
          21 2 3 2 3.</_></rects>
      <tilted>0</tilted></_>
    <_>
      <rects>
        <_>
          22 9 2 6 -1.</_>
        <_>
          22 11 2 2 3.</_></rects>
      <tilted>0</tilted></_>
    <_>
      <rects>
        <_>
          22 13 1 6 -1.</_>
        <_>
          22 16 1 3 2.</_></rects>
      <tilted>0</tilted></_>
    <_>
      <rects>
        <_>
          22 16 2 4 -1.</_>
        <_>
          23 16 1 4 2.</_></rects>
      <tilted>0</tilted></_>
    <_>
      <rects>
        <_>
          22 20 2 3 -1.</_>
        <_>
          23 20 1 3 2.</_></rects>
      <tilted>0</tilted></_>
    <_>
      <rects>
        <_>
          22 21 2 3 -1.</_>
        <_>
          23 21 1 3 2.</_></rects>
      <tilted>0</tilted></_>
    <_>
      <rects>
        <_>
          23 0 1 24 -1.</_>
        <_>
          23 8 1 8 3.</_></rects>
      <tilted>0</tilted></_>
    <_>
      <rects>
        <_>
          23 2 1 9 -1.</_>
        <_>
          23 5 1 3 3.</_></rects>
      <tilted>0</tilted></_>
    <_>
      <rects>
        <_>
          23 2 1 21 -1.</_>
        <_>
          23 9 1 7 3.</_></rects>
      <tilted>0</tilted></_>
    <_>
      <rects>
        <_>
          23 5 1 15 -1.</_>
        <_>
          23 10 1 5 3.</_></rects>
      <tilted>0</tilted></_>
    <_>
      <rects>
        <_>
          23 6 1 15 -1.</_>
        <_>
          23 11 1 5 3.</_></rects>
      <tilted>0</tilted></_>
    <_>
      <rects>
        <_>
          23 13 1 6 -1.</_>
        <_>
          23 15 1 2 3.</_></rects>
      <tilted>0</tilted></_>
    <_>
      <rects>
        <_>
          23 14 1 4 -1.</_>
        <_>
          23 16 1 2 2.</_></rects>
      <tilted>0</tilted></_></features></cascade>
</opencv_storage>
