<?xml version="1.0"?>
<opencv_storage>
<cascade>
  <stageType>BOOST</stageType>
  <featureType>HAAR</featureType>
  <height>24</height>
  <width>24</width>
  <stageParams>
    <boostType>GAB</boostType>
    <minHitRate>9.9500000476837158e-01</minHitRate>
    <maxFalseAlarm>5.0000000000000000e-01</maxFalseAlarm>
    <weightTrimRate>9.4999998807907104e-01</weightTrimRate>
    <maxDepth>1</maxDepth>
    <maxWeakCount>100</maxWeakCount></stageParams>
  <featureParams>
    <maxCatCount>0</maxCatCount>
    <featSize>1</featSize>
    <mode>BASIC</mode></featureParams>
  <stageNum>14</stageNum>
  <stages>
    <!-- stage 0 -->
    <_>
      <maxWeakCount>3</maxWeakCount>
      <stageThreshold>-1.5184339284896851e+00</stageThreshold>
      <weakClassifiers>
        <_>
          <internalNodes>
            0 -1 45 5.7712253183126450e-02</internalNodes>
          <leafValues>
            -9.7793382406234741e-01 4.8148149251937866e-01</leafValues></_>
        <_>
          <internalNodes>
            0 -1 1 -3.8070231676101685e-01</internalNodes>
          <leafValues>
            3.7595683336257935e-01 -9.8246610164642334e-01</leafValues></_>
        <_>
          <internalNodes>
            0 -1 18 1.8616516143083572e-02</internalNodes>
          <leafValues>
            -9.1645699739456177e-01 5.5109673738479614e-01</leafValues></_></weakClassifiers></_>
    <!-- stage 1 -->
    <_>
      <maxWeakCount>3</maxWeakCount>
      <stageThreshold>-1.6883786916732788e+00</stageThreshold>
      <weakClassifiers>
        <_>
          <internalNodes>
            0 -1 15 -4.7339804470539093e-02</internalNodes>
          <leafValues>
            4.5454546809196472e-01 -9.6226418018341064e-01</leafValues></_>
        <_>
          <internalNodes>
            0 -1 37 -2.3306116461753845e-02</internalNodes>
          <leafValues>
            -3.3390421885997057e-03 -9.3962424993515015e-01</leafValues></_>
        <_>
          <internalNodes>
            0 -1 22 2.8632085770368576e-02</internalNodes>
          <leafValues>
            -9.6342861652374268e-01 2.1350973844528198e-01</leafValues></_></weakClassifiers></_>
    <!-- stage 2 -->
    <_>
      <maxWeakCount>3</maxWeakCount>
      <stageThreshold>-1.6818403005599976e+00</stageThreshold>
      <weakClassifiers>
        <_>
          <internalNodes>
            0 -1 35 -3.5264063626527786e-02</internalNodes>
          <leafValues>
            1.8750000000000000e-01 -9.7365754842758179e-01</leafValues></_>
        <_>
          <internalNodes>
            0 -1 19 7.8001506626605988e-02</internalNodes>
          <leafValues>
            -9.0949881076812744e-01 1.9835788011550903e-01</leafValues></_>
        <_>
          <internalNodes>
            0 -1 2 -7.0267736911773682e-02</internalNodes>
          <leafValues>
            4.0312626957893372e-01 -9.0654063224792480e-01</leafValues></_></weakClassifiers></_>
    <!-- stage 3 -->
    <_>
      <maxWeakCount>4</maxWeakCount>
      <stageThreshold>-2.4224448204040527e+00</stageThreshold>
      <weakClassifiers>
        <_>
          <internalNodes>
            0 -1 12 -2.1624475717544556e-01</internalNodes>
          <leafValues>
            -9.8591551184654236e-02 -9.6122449636459351e-01</leafValues></_>
        <_>
          <internalNodes>
            0 -1 33 1.3788405060768127e-01</internalNodes>
          <leafValues>
            -9.1093653440475464e-01 1.4451396465301514e-01</leafValues></_>
        <_>
          <internalNodes>
            0 -1 28 -4.0973570197820663e-02</internalNodes>
          <leafValues>
            2.0177395641803741e-01 -8.5535490512847900e-01</leafValues></_>
        <_>
          <internalNodes>
            0 -1 14 -9.8996916785836220e-03</internalNodes>
          <leafValues>
            3.0507111549377441e-01 -9.3737220764160156e-01</leafValues></_></weakClassifiers></_>
    <!-- stage 4 -->
    <_>
      <maxWeakCount>3</maxWeakCount>
      <stageThreshold>-1.6060892343521118e+00</stageThreshold>
      <weakClassifiers>
        <_>
          <internalNodes>
            0 -1 34 1.2777002528309822e-02</internalNodes>
          <leafValues>
            -9.6058088541030884e-01 -2.6436781883239746e-01</leafValues></_>
        <_>
          <internalNodes>
            0 -1 9 -4.5530074834823608e-01</internalNodes>
          <leafValues>
            2.3974905908107758e-01 -8.3694392442703247e-01</leafValues></_>
        <_>
          <internalNodes>
            0 -1 32 3.0811119824647903e-02</internalNodes>
          <leafValues>
            -1. 1.9143564999103546e-01</leafValues></_></weakClassifiers></_>
    <!-- stage 5 -->
    <_>
      <maxWeakCount>3</maxWeakCount>
      <stageThreshold>-1.8213926553726196e+00</stageThreshold>
      <weakClassifiers>
        <_>
          <internalNodes>
            0 -1 11 -1.2753346562385559e-01</internalNodes>
          <leafValues>
            -7.4626863002777100e-02 -9.5934957265853882e-01</leafValues></_>
        <_>
          <internalNodes>
            0 -1 7 8.5510961711406708e-02</internalNodes>
          <leafValues>
            -9.0468329191207886e-01 9.9751286208629608e-02</leafValues></_>
        <_>
          <internalNodes>
            0 -1 16 -3.4896619617938995e-02</internalNodes>
          <leafValues>
            1.1738625168800354e-01 -9.6179431676864624e-01</leafValues></_></weakClassifiers></_>
    <!-- stage 6 -->
    <_>
      <maxWeakCount>4</maxWeakCount>
      <stageThreshold>-1.3822982311248779e+00</stageThreshold>
      <weakClassifiers>
        <_>
          <internalNodes>
            0 -1 48 4.2665399610996246e-02</internalNodes>
          <leafValues>
            -9.3987977504730225e-01 -2.0754717290401459e-01</leafValues></_>
        <_>
          <internalNodes>
            0 -1 27 -2.5251924991607666e-02</internalNodes>
          <leafValues>
            3.4853219985961914e-01 -8.0521750450134277e-01</leafValues></_>
        <_>
          <internalNodes>
            0 -1 51 -1.7452710308134556e-03</internalNodes>
          <leafValues>
            -9.6814495325088501e-01 1.4829520881175995e-01</leafValues></_>
        <_>
          <internalNodes>
            0 -1 24 -5.8077704161405563e-03</internalNodes>
          <leafValues>
            2.1450386941432953e-01 -1.</leafValues></_></weakClassifiers></_>
    <!-- stage 7 -->
    <_>
      <maxWeakCount>4</maxWeakCount>
      <stageThreshold>-2.1376502513885498e+00</stageThreshold>
      <weakClassifiers>
        <_>
          <internalNodes>
            0 -1 20 1.1118809878826141e-01</internalNodes>
          <leafValues>
            -9.5687884092330933e-01 -2.2077922523021698e-01</leafValues></_>
        <_>
          <internalNodes>
            0 -1 31 3.4931108355522156e-02</internalNodes>
          <leafValues>
            -8.4974855184555054e-01 4.0762659907341003e-01</leafValues></_>
        <_>
          <internalNodes>
            0 -1 17 -1.5183387324213982e-02</internalNodes>
          <leafValues>
            5.2853655815124512e-01 -7.0351648330688477e-01</leafValues></_>
        <_>
          <internalNodes>
            0 -1 26 -9.5707420259714127e-03</internalNodes>
          <leafValues>
            -1. 3.7249368429183960e-01</leafValues></_></weakClassifiers></_>
    <!-- stage 8 -->
    <_>
      <maxWeakCount>3</maxWeakCount>
      <stageThreshold>-1.5948944091796875e+00</stageThreshold>
      <weakClassifiers>
        <_>
          <internalNodes>
            0 -1 44 -5.2245035767555237e-03</internalNodes>
          <leafValues>
            7.4074074625968933e-02 -9.5586758852005005e-01</leafValues></_>
        <_>
          <internalNodes>
            0 -1 21 3.8408584892749786e-02</internalNodes>
          <leafValues>
            -9.0346747636795044e-01 2.5375178456306458e-01</leafValues></_>
        <_>
          <internalNodes>
            0 -1 0 -1.8464624881744385e-02</internalNodes>
          <leafValues>
            4.4765189290046692e-01 -7.6550102233886719e-01</leafValues></_></weakClassifiers></_>
    <!-- stage 9 -->
    <_>
      <maxWeakCount>3</maxWeakCount>
      <stageThreshold>-1.6006832122802734e+00</stageThreshold>
      <weakClassifiers>
        <_>
          <internalNodes>
            0 -1 47 -9.4891943037509918e-02</internalNodes>
          <leafValues>
            1.6666667163372040e-01 -9.2794549465179443e-01</leafValues></_>
        <_>
          <internalNodes>
            0 -1 38 2.1123861894011497e-02</internalNodes>
          <leafValues>
            -8.2620358467102051e-01 4.9919743090867996e-02</leafValues></_>
        <_>
          <internalNodes>
            0 -1 30 -2.0507669541984797e-03</internalNodes>
          <leafValues>
            -1. 1.5346583724021912e-01</leafValues></_></weakClassifiers></_>
    <!-- stage 10 -->
    <_>
      <maxWeakCount>4</maxWeakCount>
      <stageThreshold>-1.7603384256362915e+00</stageThreshold>
      <weakClassifiers>
        <_>
          <internalNodes>
            0 -1 40 -1.6565982252359390e-02</internalNodes>
          <leafValues>
            -2.0000000298023224e-01 -9.4176709651947021e-01</leafValues></_>
        <_>
          <internalNodes>
            0 -1 36 1.1680793948471546e-02</internalNodes>
          <leafValues>
            -8.0756109952926636e-01 1.4396968483924866e-01</leafValues></_>
        <_>
          <internalNodes>
            0 -1 29 1.3535568723455071e-04</internalNodes>
          <leafValues>
            2.0320335030555725e-01 -9.4039595127105713e-01</leafValues></_>
        <_>
          <internalNodes>
            0 -1 4 -6.5904698567464948e-04</internalNodes>
          <leafValues>
            -9.5419669151306152e-01 1.8761862814426422e-01</leafValues></_></weakClassifiers></_>
    <!-- stage 11 -->
    <_>
      <maxWeakCount>5</maxWeakCount>
      <stageThreshold>-2.0578689575195313e+00</stageThreshold>
      <weakClassifiers>
        <_>
          <internalNodes>
            0 -1 49 7.1749854832887650e-03</internalNodes>
          <leafValues>
            -9.1899710893630981e-01 2.8571429848670959e-01</leafValues></_>
        <_>
          <internalNodes>
            0 -1 41 1.4078261330723763e-02</internalNodes>
          <leafValues>
            -7.3828899860382080e-01 2.2769884765148163e-01</leafValues></_>
        <_>
          <internalNodes>
            0 -1 8 -2.0940782269462943e-04</internalNodes>
          <leafValues>
            -9.1579198837280273e-01 2.1204592287540436e-01</leafValues></_>
        <_>
          <internalNodes>
            0 -1 13 -2.8352325782179832e-02</internalNodes>
          <leafValues>
            2.5379917025566101e-01 -9.7240346670150757e-01</leafValues></_>
        <_>
          <internalNodes>
            0 -1 46 2.2543579689227045e-04</internalNodes>
          <leafValues>
            2.6141005754470825e-01 -9.3052375316619873e-01</leafValues></_></weakClassifiers></_>
    <!-- stage 12 -->
    <_>
      <maxWeakCount>5</maxWeakCount>
      <stageThreshold>-1.9404566287994385e+00</stageThreshold>
      <weakClassifiers>
        <_>
          <internalNodes>
            0 -1 10 -2.1033011376857758e-02</internalNodes>
          <leafValues>
            5.0000000000000000e-01 -9.1915303468704224e-01</leafValues></_>
        <_>
          <internalNodes>
            0 -1 43 1.2148290872573853e-01</internalNodes>
          <leafValues>
            -7.5348985195159912e-01 2.7392852306365967e-01</leafValues></_>
        <_>
          <internalNodes>
            0 -1 6 -6.7469254136085510e-03</internalNodes>
          <leafValues>
            2.4310623109340668e-01 -8.7577813863754272e-01</leafValues></_>
        <_>
          <internalNodes>
            0 -1 42 1.1322263162583113e-03</internalNodes>
          <leafValues>
            3.1673625111579895e-01 -7.9170608520507813e-01</leafValues></_>
        <_>
          <internalNodes>
            0 -1 5 -4.4130938476882875e-04</internalNodes>
          <leafValues>
            -1. 2.9122820496559143e-01</leafValues></_></weakClassifiers></_>
    <!-- stage 13 -->
    <_>
      <maxWeakCount>5</maxWeakCount>
      <stageThreshold>-2.2429513931274414e+00</stageThreshold>
      <weakClassifiers>
        <_>
          <internalNodes>
            0 -1 3 -7.4399515986442566e-02</internalNodes>
          <leafValues>
            -1.5000000596046448e-01 -9.3273985385894775e-01</leafValues></_>
        <_>
          <internalNodes>
            0 -1 25 -4.9969248473644257e-02</internalNodes>
          <leafValues>
            -4.7716151922941208e-02 -8.4161430597305298e-01</leafValues></_>
        <_>
          <internalNodes>
            0 -1 50 -7.6987873762845993e-04</internalNodes>
          <leafValues>
            -9.7667807340621948e-01 1.0944557934999466e-01</leafValues></_>
        <_>
          <internalNodes>
            0 -1 23 -1.4066188596189022e-03</internalNodes>
          <leafValues>
            2.3716355860233307e-01 -8.0425667762756348e-01</leafValues></_>
        <_>
          <internalNodes>
            0 -1 39 -2.9846187680959702e-03</internalNodes>
          <leafValues>
            2.2621381282806396e-01 -1.</leafValues></_></weakClassifiers></_></stages>
  <features>
    <_>
      <rects>
        <_>
          0 0 17 6 -1.</_>
        <_>
          0 2 17 2 3.</_></rects>
      <tilted>0</tilted></_>
    <_>
      <rects>
        <_>
          0 1 24 20 -1.</_>
        <_>
          8 1 8 20 3.</_></rects>
      <tilted>0</tilted></_>
    <_>
      <rects>
        <_>
          0 6 14 6 -1.</_>
        <_>
          7 6 7 6 2.</_></rects>
      <tilted>0</tilted></_>
    <_>
      <rects>
        <_>
          0 7 9 10 -1.</_>
        <_>
          3 7 3 10 3.</_></rects>
      <tilted>0</tilted></_>
    <_>
      <rects>
        <_>
          0 15 1 9 -1.</_>
        <_>
          0 18 1 3 3.</_></rects>
      <tilted>0</tilted></_>
    <_>
      <rects>
        <_>
          0 15 2 6 -1.</_>
        <_>
          0 15 1 3 2.</_>
        <_>
          1 18 1 3 2.</_></rects>
      <tilted>0</tilted></_>
    <_>
      <rects>
        <_>
          0 16 12 6 -1.</_>
        <_>
          0 18 12 2 3.</_></rects>
      <tilted>0</tilted></_>
    <_>
      <rects>
        <_>
          0 18 20 6 -1.</_>
        <_>
          0 21 20 3 2.</_></rects>
      <tilted>0</tilted></_>
    <_>
      <rects>
        <_>
          0 19 1 4 -1.</_>
        <_>
          0 21 1 2 2.</_></rects>
      <tilted>0</tilted></_>
    <_>
      <rects>
        <_>
          1 0 21 24 -1.</_>
        <_>
          1 8 21 8 3.</_></rects>
      <tilted>0</tilted></_>
    <_>
      <rects>
        <_>
          2 7 2 9 -1.</_>
        <_>
          3 7 1 9 2.</_></rects>
      <tilted>0</tilted></_>
    <_>
      <rects>
        <_>
          3 0 4 24 -1.</_>
        <_>
          3 8 4 8 3.</_></rects>
      <tilted>0</tilted></_>
    <_>
      <rects>
        <_>
          3 0 18 12 -1.</_>
        <_>
          3 6 18 6 2.</_></rects>
      <tilted>0</tilted></_>
    <_>
      <rects>
        <_>
          3 1 8 12 -1.</_>
        <_>
          7 1 4 12 2.</_></rects>
      <tilted>0</tilted></_>
    <_>
      <rects>
        <_>
          3 13 4 9 -1.</_>
        <_>
          5 13 2 9 2.</_></rects>
      <tilted>0</tilted></_>
    <_>
      <rects>
        <_>
          4 1 13 4 -1.</_>
        <_>
          4 3 13 2 2.</_></rects>
      <tilted>0</tilted></_>
    <_>
      <rects>
        <_>
          4 3 7 21 -1.</_>
        <_>
          4 10 7 7 3.</_></rects>
      <tilted>0</tilted></_>
    <_>
      <rects>
        <_>
          4 8 1 15 -1.</_>
        <_>
          4 13 1 5 3.</_></rects>
      <tilted>0</tilted></_>
    <_>
      <rects>
        <_>
          4 17 4 6 -1.</_>
        <_>
          4 20 4 3 2.</_></rects>
      <tilted>0</tilted></_>
    <_>
      <rects>
        <_>
          5 18 13 6 -1.</_>
        <_>
          5 21 13 3 2.</_></rects>
      <tilted>0</tilted></_>
    <_>
      <rects>
        <_>
          5 18 15 6 -1.</_>
        <_>
          5 21 15 3 2.</_></rects>
      <tilted>0</tilted></_>
    <_>
      <rects>
        <_>
          5 19 15 4 -1.</_>
        <_>
          5 21 15 2 2.</_></rects>
      <tilted>0</tilted></_>
    <_>
      <rects>
        <_>
          6 8 16 12 -1.</_>
        <_>
          6 8 8 6 2.</_>
        <_>
          14 14 8 6 2.</_></rects>
      <tilted>0</tilted></_>
    <_>
      <rects>
        <_>
          6 17 6 7 -1.</_>
        <_>
          8 17 2 7 3.</_></rects>
      <tilted>0</tilted></_>
    <_>
      <rects>
        <_>
          8 17 9 7 -1.</_>
        <_>
          11 17 3 7 3.</_></rects>
      <tilted>0</tilted></_>
    <_>
      <rects>
        <_>
          9 4 15 3 -1.</_>
        <_>
          14 4 5 3 3.</_></rects>
      <tilted>0</tilted></_>
    <_>
      <rects>
        <_>
          9 13 6 11 -1.</_>
        <_>
          11 13 2 11 3.</_></rects>
      <tilted>0</tilted></_>
    <_>
      <rects>
        <_>
          11 0 5 4 -1.</_>
        <_>
          11 2 5 2 2.</_></rects>
      <tilted>0</tilted></_>
    <_>
      <rects>
        <_>
          12 0 9 8 -1.</_>
        <_>
          12 4 9 4 2.</_></rects>
      <tilted>0</tilted></_>
    <_>
      <rects>
        <_>
          12 11 3 12 -1.</_>
        <_>
          13 11 1 12 3.</_></rects>
      <tilted>0</tilted></_>
    <_>
      <rects>
        <_>
          12 13 3 11 -1.</_>
        <_>
          13 13 1 11 3.</_></rects>
      <tilted>0</tilted></_>
    <_>
      <rects>
        <_>
          13 0 10 6 -1.</_>
        <_>
          13 0 5 3 2.</_>
        <_>
          18 3 5 3 2.</_></rects>
      <tilted>0</tilted></_>
    <_>
      <rects>
        <_>
          13 0 10 9 -1.</_>
        <_>
          18 0 5 9 2.</_></rects>
      <tilted>0</tilted></_>
    <_>
      <rects>
        <_>
          14 3 10 15 -1.</_>
        <_>
          19 3 5 15 2.</_></rects>
      <tilted>0</tilted></_>
    <_>
      <rects>
        <_>
          14 4 8 1 -1.</_>
        <_>
          18 4 4 1 2.</_></rects>
      <tilted>0</tilted></_>
    <_>
      <rects>
        <_>
          15 0 3 8 -1.</_>
        <_>
          15 4 3 4 2.</_></rects>
      <tilted>0</tilted></_>
    <_>
      <rects>
        <_>
          15 1 6 4 -1.</_>
        <_>
          15 1 3 2 2.</_>
        <_>
          18 3 3 2 2.</_></rects>
      <tilted>0</tilted></_>
    <_>
      <rects>
        <_>
          15 1 6 6 -1.</_>
        <_>
          15 4 6 3 2.</_></rects>
      <tilted>0</tilted></_>
    <_>
      <rects>
        <_>
          16 2 8 6 -1.</_>
        <_>
          16 2 4 3 2.</_>
        <_>
          20 5 4 3 2.</_></rects>
      <tilted>0</tilted></_>
    <_>
      <rects>
        <_>
          16 7 8 9 -1.</_>
        <_>
          16 10 8 3 3.</_></rects>
      <tilted>0</tilted></_>
    <_>
      <rects>
        <_>
          17 7 6 3 -1.</_>
        <_>
          19 7 2 3 3.</_></rects>
      <tilted>0</tilted></_>
    <_>
      <rects>
        <_>
          17 16 2 6 -1.</_>
        <_>
          17 19 2 3 2.</_></rects>
      <tilted>0</tilted></_>
    <_>
      <rects>
        <_>
          18 2 6 1 -1.</_>
        <_>
          20 2 2 1 3.</_></rects>
      <tilted>0</tilted></_>
    <_>
      <rects>
        <_>
          18 2 6 17 -1.</_>
        <_>
          21 2 3 17 2.</_></rects>
      <tilted>0</tilted></_>
    <_>
      <rects>
        <_>
          18 3 1 4 -1.</_>
        <_>
          18 5 1 2 2.</_></rects>
      <tilted>0</tilted></_>
    <_>
      <rects>
        <_>
          18 4 6 12 -1.</_>
        <_>
          21 4 3 12 2.</_></rects>
      <tilted>0</tilted></_>
    <_>
      <rects>
        <_>
          20 2 4 1 -1.</_>
        <_>
          22 2 2 1 2.</_></rects>
      <tilted>0</tilted></_>
    <_>
      <rects>
        <_>
          20 2 2 21 -1.</_>
        <_>
          20 9 2 7 3.</_></rects>
      <tilted>0</tilted></_>
    <_>
      <rects>
        <_>
          20 8 4 7 -1.</_>
        <_>
          22 8 2 7 2.</_></rects>
      <tilted>0</tilted></_>
    <_>
      <rects>
        <_>
          21 15 2 2 -1.</_>
        <_>
          22 15 1 2 2.</_></rects>
      <tilted>0</tilted></_>
    <_>
      <rects>
        <_>
          22 16 2 8 -1.</_>
        <_>
          22 16 1 4 2.</_>
        <_>
          23 20 1 4 2.</_></rects>
      <tilted>0</tilted></_>
    <_>
      <rects>
        <_>
          23 5 1 18 -1.</_>
        <_>
          23 11 1 6 3.</_></rects>
      <tilted>0</tilted></_></features></cascade>
</opencv_storage>
